#include "gaussquadrature.h"
#include <iostream>
#include <stdexcept>

IntegralConfiguration::IntegralConfiguration(double start, double end, size_t n) :
		start(start), end(end), n(n) {
}

GaussQuadrature::GaussQuadrature() {

	roots[1] = { { 0 } };
	weights[1] = { { 2.0000000000000000000000000 } };
	roots[2] = { { -0.5773502691896257645091488, 0.5773502691896257645091488 } };
	weights[2] = { { 1.0000000000000000000000000, 1.0000000000000000000000000 } };
	roots[3] = { { 0, -0.7745966692414833770358531, 0.7745966692414833770358531 } };
	weights[3] = { { 0.8888888888888888888888889, 0.5555555555555555555555556, 0.5555555555555555555555556 } };
	roots[4] = { { -0.3399810435848562648026658, 0.3399810435848562648026658, -0.8611363115940525752239465,
			0.8611363115940525752239465 } };
	weights[4] = { { 0.6521451548625461426269361, 0.6521451548625461426269361, 0.3478548451374538573730639,
			0.3478548451374538573730639 } };
	roots[5] = { { 0, -0.5384693101056830910363144, 0.5384693101056830910363144, -0.9061798459386639927976269,
			0.9061798459386639927976269 } };
	weights[5] = { { 0.5688888888888888888888889, 0.4786286704993664680412915, 0.4786286704993664680412915,
			0.2369268850561890875142640, 0.2369268850561890875142640 } };
	roots[6] = { { -0.2386191860831969086305017, 0.2386191860831969086305017, -0.6612093864662645136613996,
			0.6612093864662645136613996, -0.9324695142031520278123016, 0.9324695142031520278123016 } };
	weights[6] = { { 0.4679139345726910473898703, 0.4679139345726910473898703, 0.3607615730481386075698335,
			0.3607615730481386075698335, 0.1713244923791703450402961, 0.1713244923791703450402961 } };
	roots[7] = { { 0, -0.4058451513773971669066064, 0.4058451513773971669066064, -0.7415311855993944398638648,
			0.7415311855993944398638648, -0.9491079123427585245261897, 0.9491079123427585245261897 } };
	weights[7] = { { 0.4179591836734693877551020, 0.3818300505051189449503698, 0.3818300505051189449503698,
			0.2797053914892766679014678, 0.2797053914892766679014678, 0.1294849661688696932706114,
			0.1294849661688696932706114 } };
	roots[8] = { { -0.1834346424956498049394761, 0.1834346424956498049394761, -0.5255324099163289858177390,
			0.5255324099163289858177390, -0.7966664774136267395915539, 0.7966664774136267395915539,
			-0.9602898564975362316835609, 0.9602898564975362316835609 } };
	weights[8] = { { 0.3626837833783619829651504, 0.3626837833783619829651504, 0.3137066458778872873379622,
			0.3137066458778872873379622, 0.2223810344533744705443560, 0.2223810344533744705443560,
			0.1012285362903762591525314, 0.1012285362903762591525314 } };
	roots[9] = { { 0, -0.3242534234038089290385380, 0.3242534234038089290385380, -0.6133714327005903973087020,
			0.6133714327005903973087020, -0.8360311073266357942994298, 0.8360311073266357942994298,
			-0.9681602395076260898355762, 0.9681602395076260898355762 } };
	weights[9] = { { 0.3302393550012597631645251, 0.3123470770400028400686304, 0.3123470770400028400686304,
			0.2606106964029354623187429, 0.2606106964029354623187429, 0.1806481606948574040584720,
			0.1806481606948574040584720, 0.0812743883615744119718922, 0.0812743883615744119718922 } };
	roots[10] = { { -0.1488743389816312108848260, 0.1488743389816312108848260, -0.4333953941292471907992659,
			0.4333953941292471907992659, -0.6794095682990244062343274, 0.6794095682990244062343274,
			-0.8650633666889845107320967, 0.8650633666889845107320967, -0.9739065285171717200779640,
			0.9739065285171717200779640 } };
	weights[10] = { { 0.2955242247147528701738930, 0.2955242247147528701738930, 0.2692667193099963550912269,
			0.2692667193099963550912269, 0.2190863625159820439955349, 0.2190863625159820439955349,
			0.1494513491505805931457763, 0.1494513491505805931457763, 0.0666713443086881375935688,
			0.0666713443086881375935688 } };
	roots[11] = { { 0, -0.2695431559523449723315320, 0.2695431559523449723315320, -0.5190961292068118159257257,
			0.5190961292068118159257257, -0.7301520055740493240934163, 0.7301520055740493240934163,
			-0.8870625997680952990751578, 0.8870625997680952990751578, -0.9782286581460569928039380,
			0.9782286581460569928039380 } };
	weights[11] = { { 0.2729250867779006307144835, 0.2628045445102466621806889, 0.2628045445102466621806889,
			0.2331937645919904799185237, 0.2331937645919904799185237, 0.1862902109277342514260976,
			0.1862902109277342514260976, 0.1255803694649046246346943, 0.1255803694649046246346943,
			0.0556685671161736664827537, 0.0556685671161736664827537 } };
	roots[12] = { { -0.1252334085114689154724414, 0.1252334085114689154724414, -0.3678314989981801937526915,
			0.3678314989981801937526915, -0.5873179542866174472967024, 0.5873179542866174472967024,
			-0.7699026741943046870368938, 0.7699026741943046870368938, -0.9041172563704748566784659,
			0.9041172563704748566784659, -0.9815606342467192506905491, 0.9815606342467192506905491 } };
	weights[12] = { { 0.2491470458134027850005624, 0.2491470458134027850005624, 0.2334925365383548087608499,
			0.2334925365383548087608499, 0.2031674267230659217490645, 0.2031674267230659217490645,
			0.1600783285433462263346525, 0.1600783285433462263346525, 0.1069393259953184309602547,
			0.1069393259953184309602547, 0.0471753363865118271946160, 0.0471753363865118271946160 } };
	roots[13] = { { 0, -0.2304583159551347940655281, 0.2304583159551347940655281, -0.4484927510364468528779129,
			0.4484927510364468528779129, -0.6423493394403402206439846, 0.6423493394403402206439846,
			-0.8015780907333099127942065, 0.8015780907333099127942065, -0.9175983992229779652065478,
			0.9175983992229779652065478, -0.9841830547185881494728294, 0.9841830547185881494728294 } };
	weights[13] = { { 0.2325515532308739101945895, 0.2262831802628972384120902, 0.2262831802628972384120902,
			0.2078160475368885023125232, 0.2078160475368885023125232, 0.1781459807619457382800467,
			0.1781459807619457382800467, 0.1388735102197872384636018, 0.1388735102197872384636018,
			0.0921214998377284479144218, 0.0921214998377284479144218, 0.0404840047653158795200216,
			0.0404840047653158795200216 } };
	roots[14] = { { -0.1080549487073436620662447, 0.1080549487073436620662447, -0.3191123689278897604356718,
			0.3191123689278897604356718, -0.5152486363581540919652907, 0.5152486363581540919652907,
			-0.6872929048116854701480198, 0.6872929048116854701480198, -0.8272013150697649931897947,
			0.8272013150697649931897947, -0.9284348836635735173363911, 0.9284348836635735173363911,
			-0.9862838086968123388415973, 0.9862838086968123388415973 } };
	weights[14] = { { 0.2152638534631577901958764, 0.2152638534631577901958764, 0.2051984637212956039659241,
			0.2051984637212956039659241, 0.1855383974779378137417166, 0.1855383974779378137417166,
			0.1572031671581935345696019, 0.1572031671581935345696019, 0.1215185706879031846894148,
			0.1215185706879031846894148, 0.0801580871597602098056333, 0.0801580871597602098056333,
			0.0351194603317518630318329, 0.0351194603317518630318329 } };
	roots[15] = { { 0, -0.2011940939974345223006283, 0.2011940939974345223006283, -0.3941513470775633698972074,
			0.3941513470775633698972074, -0.5709721726085388475372267, 0.5709721726085388475372267,
			-0.7244177313601700474161861, 0.7244177313601700474161861, -0.8482065834104272162006483,
			0.8482065834104272162006483, -0.9372733924007059043077589, 0.9372733924007059043077589,
			-0.9879925180204854284895657, 0.9879925180204854284895657 } };
	weights[15] = { { 0.2025782419255612728806202, 0.1984314853271115764561183, 0.1984314853271115764561183,
			0.1861610000155622110268006, 0.1861610000155622110268006, 0.1662692058169939335532009,
			0.1662692058169939335532009, 0.1395706779261543144478048, 0.1395706779261543144478048,
			0.1071592204671719350118695, 0.1071592204671719350118695, 0.0703660474881081247092674,
			0.0703660474881081247092674, 0.0307532419961172683546284, 0.0307532419961172683546284 } };
	roots[16] = { { -0.0950125098376374401853193, 0.0950125098376374401853193, -0.2816035507792589132304605,
			0.2816035507792589132304605, -0.4580167776572273863424194, 0.4580167776572273863424194,
			-0.6178762444026437484466718, 0.6178762444026437484466718, -0.7554044083550030338951012,
			0.7554044083550030338951012, -0.8656312023878317438804679, 0.8656312023878317438804679,
			-0.9445750230732325760779884, 0.9445750230732325760779884, -0.9894009349916499325961542,
			0.9894009349916499325961542 } };
	weights[16] = { { 0.1894506104550684962853967, 0.1894506104550684962853967, 0.1826034150449235888667637,
			0.1826034150449235888667637, 0.1691565193950025381893121, 0.1691565193950025381893121,
			0.1495959888165767320815017, 0.1495959888165767320815017, 0.1246289712555338720524763,
			0.1246289712555338720524763, 0.0951585116824927848099251, 0.0951585116824927848099251,
			0.0622535239386478928628438, 0.0622535239386478928628438, 0.0271524594117540948517806,
			0.0271524594117540948517806 } };
	roots[17] = { { 0, -0.1784841814958478558506775, 0.1784841814958478558506775, -0.3512317634538763152971855,
			0.3512317634538763152971855, -0.5126905370864769678862466, 0.5126905370864769678862466,
			-0.6576711592166907658503022, 0.6576711592166907658503022, -0.7815140038968014069252301,
			0.7815140038968014069252301, -0.8802391537269859021229557, 0.8802391537269859021229557,
			-0.9506755217687677612227170, 0.9506755217687677612227170, -0.9905754753144173356754340,
			0.9905754753144173356754340 } };
	weights[17] = { { 0.1794464703562065254582656, 0.1765627053669926463252710, 0.1765627053669926463252710,
			0.1680041021564500445099707, 0.1680041021564500445099707, 0.1540457610768102880814316,
			0.1540457610768102880814316, 0.1351363684685254732863200, 0.1351363684685254732863200,
			0.1118838471934039710947884, 0.1118838471934039710947884, 0.0850361483171791808835354,
			0.0850361483171791808835354, 0.0554595293739872011294402, 0.0554595293739872011294402,
			0.0241483028685479319601100, 0.0241483028685479319601100 } };
	roots[18] = { { -0.0847750130417353012422619, 0.0847750130417353012422619, -0.2518862256915055095889729,
			0.2518862256915055095889729, -0.4117511614628426460359318, 0.4117511614628426460359318,
			-0.5597708310739475346078715, 0.5597708310739475346078715, -0.6916870430603532078748911,
			0.6916870430603532078748911, -0.8037049589725231156824175, 0.8037049589725231156824175,
			-0.8926024664975557392060606, 0.8926024664975557392060606, -0.9558239495713977551811959,
			0.9558239495713977551811959, -0.9915651684209309467300160, 0.9915651684209309467300160 } };
	weights[18] = { { 0.1691423829631435918406565, 0.1691423829631435918406565, 0.1642764837458327229860538,
			0.1642764837458327229860538, 0.1546846751262652449254180, 0.1546846751262652449254180,
			0.1406429146706506512047313, 0.1406429146706506512047313, 0.1225552067114784601845191,
			0.1225552067114784601845191, 0.1009420441062871655628140, 0.1009420441062871655628140,
			0.0764257302548890565291297, 0.0764257302548890565291297, 0.0497145488949697964533349,
			0.0497145488949697964533349, 0.0216160135264833103133427, 0.0216160135264833103133427 } };
	roots[19] = { { 0, -0.1603586456402253758680961, 0.1603586456402253758680961, -0.3165640999636298319901173,
			0.3165640999636298319901173, -0.4645707413759609457172671, 0.4645707413759609457172671,
			-0.6005453046616810234696382, 0.6005453046616810234696382, -0.7209661773352293786170959,
			0.7209661773352293786170959, -0.8227146565371428249789225, 0.8227146565371428249789225,
			-0.9031559036148179016426609, 0.9031559036148179016426609, -0.9602081521348300308527788,
			0.9602081521348300308527788, -0.9924068438435844031890177, 0.9924068438435844031890177 } };
	weights[19] = { { 0.1610544498487836959791636, 0.1589688433939543476499564, 0.1589688433939543476499564,
			0.1527660420658596667788554, 0.1527660420658596667788554, 0.1426067021736066117757461,
			0.1426067021736066117757461, 0.1287539625393362276755158, 0.1287539625393362276755158,
			0.1115666455473339947160239, 0.1115666455473339947160239, 0.0914900216224499994644621,
			0.0914900216224499994644621, 0.0690445427376412265807083, 0.0690445427376412265807083,
			0.0448142267656996003328382, 0.0448142267656996003328382, 0.0194617882297264770363120,
			0.0194617882297264770363120 } };
	roots[20] = { { -0.0765265211334973337546404, 0.0765265211334973337546404, -0.2277858511416450780804962,
			0.2277858511416450780804962, -0.3737060887154195606725482, 0.3737060887154195606725482,
			-0.5108670019508270980043641, 0.5108670019508270980043641, -0.6360536807265150254528367,
			0.6360536807265150254528367, -0.7463319064601507926143051, 0.7463319064601507926143051,
			-0.8391169718222188233945291, 0.8391169718222188233945291, -0.9122344282513259058677524,
			0.9122344282513259058677524, -0.9639719272779137912676661, 0.9639719272779137912676661,
			-0.9931285991850949247861224, 0.9931285991850949247861224 } };
	weights[20] = { { 0.1527533871307258506980843, 0.1527533871307258506980843, 0.1491729864726037467878287,
			0.1491729864726037467878287, 0.1420961093183820513292983, 0.1420961093183820513292983,
			0.1316886384491766268984945, 0.1316886384491766268984945, 0.1181945319615184173123774,
			0.1181945319615184173123774, 0.1019301198172404350367501, 0.1019301198172404350367501,
			0.0832767415767047487247581, 0.0832767415767047487247581, 0.0626720483341090635695065,
			0.0626720483341090635695065, 0.0406014298003869413310400, 0.0406014298003869413310400,
			0.0176140071391521183118620, 0.0176140071391521183118620 } };
	roots[21] = { { 0, -0.1455618541608950909370310, 0.1455618541608950909370310, -0.2880213168024010966007925,
			0.2880213168024010966007925, -0.4243421202074387835736689, 0.4243421202074387835736689,
			-0.5516188358872198070590188, 0.5516188358872198070590188, -0.6671388041974123193059667,
			0.6671388041974123193059667, -0.7684399634756779086158779, 0.7684399634756779086158779,
			-0.8533633645833172836472506, 0.8533633645833172836472506, -0.9200993341504008287901871,
			0.9200993341504008287901871, -0.9672268385663062943166222, 0.9672268385663062943166222,
			-0.9937521706203895002602420, 0.9937521706203895002602420 } };
	weights[21] = { { 0.1460811336496904271919851, 0.1445244039899700590638272, 0.1445244039899700590638272,
			0.1398873947910731547221334, 0.1398873947910731547221334, 0.1322689386333374617810526,
			0.1322689386333374617810526, 0.1218314160537285341953672, 0.1218314160537285341953672,
			0.1087972991671483776634746, 0.1087972991671483776634746, 0.0934444234560338615532897,
			0.0934444234560338615532897, 0.0761001136283793020170517, 0.0761001136283793020170517,
			0.0571344254268572082836358, 0.0571344254268572082836358, 0.0369537897708524937999507,
			0.0369537897708524937999507, 0.0160172282577743333242246, 0.0160172282577743333242246 } };
	roots[22] = { { -0.0697392733197222212138418, 0.0697392733197222212138418, -0.2078604266882212854788465,
			0.2078604266882212854788465, -0.3419358208920842251581474, 0.3419358208920842251581474,
			-0.4693558379867570264063307, 0.4693558379867570264063307, -0.5876404035069115929588769,
			0.5876404035069115929588769, -0.6944872631866827800506898, 0.6944872631866827800506898,
			-0.7878168059792081620042780, 0.7878168059792081620042780, -0.8658125777203001365364256,
			0.8658125777203001365364256, -0.9269567721871740005206929, 0.9269567721871740005206929,
			-0.9700604978354287271239510, 0.9700604978354287271239510, -0.9942945854823992920730314,
			0.9942945854823992920730314 } };
	weights[22] = { { 0.1392518728556319933754102, 0.1392518728556319933754102, 0.1365414983460151713525738,
			0.1365414983460151713525738, 0.1311735047870623707329650, 0.1311735047870623707329650,
			0.1232523768105124242855610, 0.1232523768105124242855610, 0.1129322960805392183934006,
			0.1129322960805392183934006, 0.1004141444428809649320788, 0.1004141444428809649320788,
			0.0859416062170677274144437, 0.0859416062170677274144437, 0.0697964684245204880949614,
			0.0697964684245204880949614, 0.0522933351526832859403121, 0.0522933351526832859403121,
			0.0337749015848141547933022, 0.0337749015848141547933022, 0.0146279952982722006849911,
			0.0146279952982722006849911 } };
	roots[23] = { { 0, -0.1332568242984661109317427, 0.1332568242984661109317427, -0.2641356809703449305338695,
			0.2641356809703449305338695, -0.3903010380302908314214889, 0.3903010380302908314214889,
			-0.5095014778460075496897930, 0.5095014778460075496897930, -0.6196098757636461563850973,
			0.6196098757636461563850973, -0.7186613631319501944616245, 0.7186613631319501944616245,
			-0.8048884016188398921511184, 0.8048884016188398921511184, -0.8767523582704416673781569,
			0.8767523582704416673781569, -0.9329710868260161023491970, 0.9329710868260161023491970,
			-0.9725424712181152319560241, 0.9725424712181152319560241, -0.9947693349975521235239257,
			0.9947693349975521235239257 } };
	weights[23] = { { 0.1336545721861061753514571, 0.1324620394046966173716425, 0.1324620394046966173716425,
			0.1289057221880821499785953, 0.1289057221880821499785953, 0.1230490843067295304675784,
			0.1230490843067295304675784, 0.1149966402224113649416435, 0.1149966402224113649416435,
			0.1048920914645414100740862, 0.1048920914645414100740862, 0.0929157660600351474770186,
			0.0929157660600351474770186, 0.0792814117767189549228925, 0.0792814117767189549228925,
			0.0642324214085258521271696, 0.0642324214085258521271696, 0.0480376717310846685716411,
			0.0480376717310846685716411, 0.0309880058569794443106942, 0.0309880058569794443106942,
			0.0134118594871417720813095, 0.0134118594871417720813095 } };
	roots[24] = { { -0.0640568928626056260850431, 0.0640568928626056260850431, -0.1911188674736163091586398,
			0.1911188674736163091586398, -0.3150426796961633743867933, 0.3150426796961633743867933,
			-0.4337935076260451384870842, 0.4337935076260451384870842, -0.5454214713888395356583756,
			0.5454214713888395356583756, -0.6480936519369755692524958, 0.6480936519369755692524958,
			-0.7401241915785543642438281, 0.7401241915785543642438281, -0.8200019859739029219539499,
			0.8200019859739029219539499, -0.8864155270044010342131543, 0.8864155270044010342131543,
			-0.9382745520027327585236490, 0.9382745520027327585236490, -0.9747285559713094981983920,
			0.9747285559713094981983920, -0.9951872199970213601799974, 0.9951872199970213601799974 } };
	weights[24] = { { 0.1279381953467521569740562, 0.1279381953467521569740562, 0.1258374563468282961213754,
			0.1258374563468282961213754, 0.1216704729278033912044632, 0.1216704729278033912044632,
			0.1155056680537256013533445, 0.1155056680537256013533445, 0.1074442701159656347825773,
			0.1074442701159656347825773, 0.0976186521041138882698807, 0.0976186521041138882698807,
			0.0861901615319532759171852, 0.0861901615319532759171852, 0.0733464814110803057340336,
			0.0733464814110803057340336, 0.0592985849154367807463678, 0.0592985849154367807463678,
			0.0442774388174198061686027, 0.0442774388174198061686027, 0.0285313886289336631813078,
			0.0285313886289336631813078, 0.0123412297999871995468057, 0.0123412297999871995468057 } };
	roots[25] = { { 0, -0.1228646926107103963873598, 0.1228646926107103963873598, -0.2438668837209884320451904,
			0.2438668837209884320451904, -0.3611723058093878377358217, 0.3611723058093878377358217,
			-0.4730027314457149605221821, 0.4730027314457149605221821, -0.5776629302412229677236898,
			0.5776629302412229677236898, -0.6735663684734683644851206, 0.6735663684734683644851206,
			-0.7592592630373576305772829, 0.7592592630373576305772829, -0.8334426287608340014210211,
			0.8334426287608340014210211, -0.8949919978782753688510420, 0.8949919978782753688510420,
			-0.9429745712289743394140112, 0.9429745712289743394140112, -0.9766639214595175114983154,
			0.9766639214595175114983154, -0.9955569697904980979087849, 0.9955569697904980979087849 } };
	weights[25] = { { 0.1231760537267154512039029, 0.1222424429903100416889595, 0.1222424429903100416889595,
			0.1194557635357847722281781, 0.1194557635357847722281781, 0.1148582591457116483393255,
			0.1148582591457116483393255, 0.1085196244742636531160940, 0.1085196244742636531160940,
			0.1005359490670506442022069, 0.1005359490670506442022069, 0.0910282619829636498114972,
			0.0910282619829636498114972, 0.0801407003350010180132350, 0.0801407003350010180132350,
			0.0680383338123569172071872, 0.0680383338123569172071872, 0.0549046959758351919259369,
			0.0549046959758351919259369, 0.0409391567013063126556235, 0.0409391567013063126556235,
			0.0263549866150321372619018, 0.0263549866150321372619018, 0.0113937985010262879479030,
			0.0113937985010262879479030 } };
	roots[26] = { { -0.0592300934293132070937186, 0.0592300934293132070937186, -0.1768588203568901839690577,
			0.1768588203568901839690577, -0.2920048394859568951428354, 0.2920048394859568951428354,
			-0.4030517551234863064810774, 0.4030517551234863064810774, -0.5084407148245057176957031,
			0.5084407148245057176957031, -0.6066922930176180632319787, 0.6066922930176180632319787,
			-0.6964272604199572648638139, 0.6964272604199572648638139, -0.7763859488206788561929672,
			0.7763859488206788561929672, -0.8454459427884980187975071, 0.8454459427884980187975071,
			-0.9026378619843070742176656, 0.9026378619843070742176656, -0.9471590666617142501359153,
			0.9471590666617142501359153, -0.9783854459564709911005804, 0.9783854459564709911005804,
			-0.9958857011456169290032170, 0.9958857011456169290032170 } };
	weights[26] = { { 0.1183214152792622765163711, 0.1183214152792622765163711, 0.1166604434852965820446625,
			0.1166604434852965820446625, 0.1133618165463196665494407, 0.1133618165463196665494407,
			0.1084718405285765906565794, 0.1084718405285765906565794, 0.1020591610944254232384141,
			0.1020591610944254232384141, 0.0942138003559141484636649, 0.0942138003559141484636649,
			0.0850458943134852392104478, 0.0850458943134852392104478, 0.0746841497656597458870758,
			0.0746841497656597458870758, 0.0632740463295748355394537, 0.0632740463295748355394537,
			0.0509758252971478119983199, 0.0509758252971478119983199, 0.0379623832943627639503031,
			0.0379623832943627639503031, 0.0244178510926319087896158, 0.0244178510926319087896158,
			0.0105513726173430071556512, 0.0105513726173430071556512 } };
	roots[27] = { { 0, -0.1139725856095299669328950, 0.1139725856095299669328950, -0.2264593654395368588572391,
			0.2264593654395368588572391, -0.3359939036385088997303190, 0.3359939036385088997303190,
			-0.4411482517500268805859742, 0.4411482517500268805859742, -0.5405515645794568949003009,
			0.5405515645794568949003009, -0.6329079719464951409277346, 0.6329079719464951409277346,
			-0.7170134737394236992948162, 0.7170134737394236992948162, -0.7917716390705082271443973,
			0.7917716390705082271443973, -0.8562079080182944903027372, 0.8562079080182944903027372,
			-0.9094823206774911043006450, 0.9094823206774911043006450, -0.9509005578147050068519080,
			0.9509005578147050068519080, -0.9799234759615012228558734, 0.9799234759615012228558734,
			-0.9961792628889885669388872, 0.9961792628889885669388872 } };
	weights[27] = { { 0.1142208673789569890450457, 0.1134763461089651486203699, 0.1134763461089651486203699,
			0.1112524883568451926721631, 0.1112524883568451926721631, 0.1075782857885331872121630,
			0.1075782857885331872121630, 0.1025016378177457986712477, 0.1025016378177457986712477,
			0.0960887273700285075656526, 0.0960887273700285075656526, 0.0884231585437569501943228,
			0.0884231585437569501943228, 0.0796048677730577712630750, 0.0796048677730577712630750,
			0.0697488237662455929843229, 0.0697488237662455929843229, 0.0589835368598335991103008,
			0.0589835368598335991103008, 0.0474494125206150627040967, 0.0474494125206150627040967,
			0.0352970537574197110225783, 0.0352970537574197110225783, 0.0226862315961806231960342,
			0.0226862315961806231960342, 0.0097989960512943602611501, 0.0097989960512943602611501 } };
	roots[28] = { { -0.0550792898840342704265165, 0.0550792898840342704265165, -0.1645692821333807712814718,
			0.1645692821333807712814718, -0.2720616276351780776768264, 0.2720616276351780776768264,
			-0.3762515160890787102213572, 0.3762515160890787102213572, -0.4758742249551182610344118,
			0.4758742249551182610344118, -0.5697204718114017193080033, 0.5697204718114017193080033,
			-0.6566510940388649612198982, 0.6566510940388649612198982, -0.7356108780136317720281445,
			0.7356108780136317720281445, -0.8056413709171791714478860, 0.8056413709171791714478860,
			-0.8658925225743950489422546, 0.8658925225743950489422546, -0.9156330263921320738696894,
			0.9156330263921320738696894, -0.9542592806289381972541018, 0.9542592806289381972541018,
			-0.9813031653708727536945599, 0.9813031653708727536945599, -0.9964424975739544499504364,
			0.9964424975739544499504364 } };
	weights[28] = { { 0.1100470130164751962823763, 0.1100470130164751962823763, 0.1087111922582941352535715,
			0.1087111922582941352535715, 0.1060557659228464179104164, 0.1060557659228464179104164,
			0.1021129675780607698142166, 0.1021129675780607698142166, 0.0969306579979299158504890,
			0.0969306579979299158504890, 0.0905717443930328409421860, 0.0905717443930328409421860,
			0.0831134172289012183903965, 0.0831134172289012183903965, 0.0746462142345687790239319,
			0.0746462142345687790239319, 0.0652729239669995957933976, 0.0652729239669995957933976,
			0.0551073456757167454314829, 0.0551073456757167454314829, 0.0442729347590042278395879,
			0.0442729347590042278395879, 0.0329014277823043799776308, 0.0329014277823043799776308,
			0.0211321125927712597515004, 0.0211321125927712597515004, 0.0091242825930945177388162,
			0.0091242825930945177388162 } };
	roots[29] = { { 0, -0.1062782301326792301709824, 0.1062782301326792301709824, -0.2113522861660010745063757,
			0.2113522861660010745063757, -0.3140316378676399349481959, 0.3140316378676399349481959,
			-0.4131528881740086638907066, 0.4131528881740086638907066, -0.5075929551242276421026279,
			0.5075929551242276421026279, -0.5962817971382278203795862, 0.5962817971382278203795862,
			-0.6782145376026865151561850, 0.6782145376026865151561850, -0.7524628517344771339126101,
			0.7524628517344771339126101, -0.8181854876152524449895722, 0.8181854876152524449895722,
			-0.8746378049201027904177934, 0.8746378049201027904177934, -0.9211802329530587850937534,
			0.9211802329530587850937534, -0.9572855957780877257982080, 0.9572855957780877257982080,
			-0.9825455052614131748709260, 0.9825455052614131748709260, -0.9966794422605965861631915,
			0.9966794422605965861631915 } };
	weights[29] = { { 0.1064793817183142442465111, 0.1058761550973209414065913, 0.1058761550973209414065913,
			0.1040733100777293739133285, 0.1040733100777293739133285, 0.1010912737599149661218205,
			0.1010912737599149661218205, 0.0969638340944086063019001, 0.0969638340944086063019001,
			0.0917377571392587633479664, 0.0917377571392587633479664, 0.0854722573661725275453448,
			0.0854722573661725275453448, 0.0782383271357637838281449, 0.0782383271357637838281449,
			0.0701179332550512785695815, 0.0701179332550512785695815, 0.0612030906570791385421098,
			0.0612030906570791385421098, 0.0515948269024979239125944, 0.0515948269024979239125944,
			0.0414020625186828361048300, 0.0414020625186828361048300, 0.0307404922020936226444085,
			0.0307404922020936226444085, 0.0197320850561227059838598, 0.0197320850561227059838598,
			0.0085169038787464096542638, 0.0085169038787464096542638 } };
	roots[30] = { { -0.0514718425553176958330252, 0.0514718425553176958330252, -0.1538699136085835469637947,
			0.1538699136085835469637947, -0.2546369261678898464398051, 0.2546369261678898464398051,
			-0.3527047255308781134710372, 0.3527047255308781134710372, -0.4470337695380891767806099,
			0.4470337695380891767806099, -0.5366241481420198992641698, 0.5366241481420198992641698,
			-0.6205261829892428611404776, 0.6205261829892428611404776, -0.6978504947933157969322924,
			0.6978504947933157969322924, -0.7677774321048261949179773, 0.7677774321048261949179773,
			-0.8295657623827683974428981, 0.8295657623827683974428981, -0.8825605357920526815431165,
			0.8825605357920526815431165, -0.9262000474292743258793243, 0.9262000474292743258793243,
			-0.9600218649683075122168710, 0.9600218649683075122168710, -0.9836681232797472099700326,
			0.9836681232797472099700326, -0.9968934840746495402716301, 0.9968934840746495402716301 } };
	weights[30] = { { 0.1028526528935588403412856, 0.1028526528935588403412856, 0.1017623897484055045964290,
			0.1017623897484055045964290, 0.0995934205867952670627803, 0.0995934205867952670627803,
			0.0963687371746442596394686, 0.0963687371746442596394686, 0.0921225222377861287176327,
			0.0921225222377861287176327, 0.0868997872010829798023875, 0.0868997872010829798023875,
			0.0807558952294202153546949, 0.0807558952294202153546949, 0.0737559747377052062682439,
			0.0737559747377052062682439, 0.0659742298821804951281285, 0.0659742298821804951281285,
			0.0574931562176190664817217, 0.0574931562176190664817217, 0.0484026728305940529029381,
			0.0484026728305940529029381, 0.0387991925696270495968019, 0.0387991925696270495968019,
			0.0287847078833233693497192, 0.0287847078833233693497192, 0.0184664683110909591423021,
			0.0184664683110909591423021, 0.0079681924961666056154659, 0.0079681924961666056154659 } };
	roots[31] = { { 0, -0.0995553121523415203251748, 0.0995553121523415203251748, -0.1981211993355706287724130,
			0.1981211993355706287724130, -0.2947180699817016166179039, 0.2947180699817016166179039,
			-0.3883859016082329430613515, 0.3883859016082329430613515, -0.4781937820449024804405940,
			0.4781937820449024804405940, -0.5632491614071492627209449, 0.5632491614071492627209449,
			-0.6427067229242603461844182, 0.6427067229242603461844182, -0.7157767845868532839059709,
			0.7157767845868532839059709, -0.7817331484166249404063600, 0.7817331484166249404063600,
			-0.8399203201462673400869045, 0.8399203201462673400869045, -0.8897600299482710433741920,
			0.8897600299482710433741920, -0.9307569978966481649569458, 0.9307569978966481649569458,
			-0.9625039250929496617890524, 0.9625039250929496617890524, -0.9846859096651524840024652,
			0.9846859096651524840024652, -0.9970874818194770740556266, 0.9970874818194770740556266 } };
	weights[31] = { { 0.0997205447934264514275338, 0.0992250112266723078748755, 0.0992250112266723078748755,
			0.0977433353863287250934740, 0.0977433353863287250934740, 0.0952902429123195128072042,
			0.0952902429123195128072042, 0.0918901138936414782153629, 0.0918901138936414782153629,
			0.0875767406084778761261981, 0.0875767406084778761261981, 0.0823929917615892639038234,
			0.0823929917615892639038234, 0.0763903865987766164263577, 0.0763903865987766164263577,
			0.0696285832354103661677561, 0.0696285832354103661677561, 0.0621747865610284269103435,
			0.0621747865610284269103435, 0.0541030824249168537116663, 0.0541030824249168537116663,
			0.0454937075272011029023159, 0.0454937075272011029023159, 0.0364322739123854640243920,
			0.0364322739123854640243920, 0.0270090191849794218006087, 0.0270090191849794218006087,
			0.0173186207903105824631580, 0.0173186207903105824631580, 0.0074708315792487758586969,
			0.0074708315792487758586969 } };
	roots[32] = { { -0.0483076656877383162348126, 0.0483076656877383162348126, -0.1444719615827964934851864,
			0.1444719615827964934851864, -0.2392873622521370745446032, 0.2392873622521370745446032,
			-0.3318686022821276497799168, 0.3318686022821276497799168, -0.4213512761306353453641194,
			0.4213512761306353453641194, -0.5068999089322293900237475, 0.5068999089322293900237475,
			-0.5877157572407623290407455, 0.5877157572407623290407455, -0.6630442669302152009751152,
			0.6630442669302152009751152, -0.7321821187402896803874267, 0.7321821187402896803874267,
			-0.7944837959679424069630973, 0.7944837959679424069630973, -0.8493676137325699701336930,
			0.8493676137325699701336930, -0.8963211557660521239653072, 0.8963211557660521239653072,
			-0.9349060759377396891709191, 0.9349060759377396891709191, -0.9647622555875064307738119,
			0.9647622555875064307738119, -0.9856115115452683354001750, 0.9856115115452683354001750,
			-0.9972638618494815635449811, 0.9972638618494815635449811 } };
	weights[32] = { { 0.0965400885147278005667648, 0.0965400885147278005667648, 0.0956387200792748594190820,
			0.0956387200792748594190820, 0.0938443990808045656391802, 0.0938443990808045656391802,
			0.0911738786957638847128686, 0.0911738786957638847128686, 0.0876520930044038111427715,
			0.0876520930044038111427715, 0.0833119242269467552221991, 0.0833119242269467552221991,
			0.0781938957870703064717409, 0.0781938957870703064717409, 0.0723457941088485062253994,
			0.0723457941088485062253994, 0.0658222227763618468376501, 0.0658222227763618468376501,
			0.0586840934785355471452836, 0.0586840934785355471452836, 0.0509980592623761761961632,
			0.0509980592623761761961632, 0.0428358980222266806568786, 0.0428358980222266806568786,
			0.0342738629130214331026877, 0.0342738629130214331026877, 0.0253920653092620594557526,
			0.0253920653092620594557526, 0.0162743947309056706051706, 0.0162743947309056706051706,
			0.0070186100094700966004071, 0.0070186100094700966004071 } };
	roots[33] = { { 0, -0.0936310658547333856707429, 0.0936310658547333856707429, -0.1864392988279915723357988,
			0.1864392988279915723357988, -0.2776090971524970294032481, 0.2776090971524970294032481,
			-0.3663392577480733410702206, 0.3663392577480733410702206, -0.4518500172724506957259933,
			0.4518500172724506957259933, -0.5333899047863476435488943, 0.5333899047863476435488943,
			-0.6102423458363790273072875, 0.6102423458363790273072875, -0.6817319599697427862682159,
			0.6817319599697427862682159, -0.7472304964495621578590551, 0.7472304964495621578590551,
			-0.8061623562741665897962009, 0.8061623562741665897962009, -0.8580096526765040646430615,
			0.8580096526765040646430615, -0.9023167677434335830405313, 0.9023167677434335830405313,
			-0.9386943726111683503558351, 0.9386943726111683503558351, -0.9668229096899927689283777,
			0.9668229096899927689283777, -0.9864557262306424881103757, 0.9864557262306424881103757,
			-0.9974246942464552172661680, 0.9974246942464552172661680 } };
	weights[33] = { { 0.0937684461602099965673045, 0.0933564260655961161609991, 0.0933564260655961161609991,
			0.0921239866433168462132410, 0.0921239866433168462132410, 0.0900819586606385772397437,
			0.0900819586606385772397437, 0.0872482876188443376072817, 0.0872482876188443376072817,
			0.0836478760670387076139280, 0.0836478760670387076139280, 0.0793123647948867383639084,
			0.0793123647948867383639084, 0.0742798548439541493424722, 0.0742798548439541493424722,
			0.0685945728186567128059551, 0.0685945728186567128059551, 0.0623064825303174800316277,
			0.0623064825303174800316277, 0.0554708466316635612849445, 0.0554708466316635612849445,
			0.0481477428187116956701469, 0.0481477428187116956701469, 0.0404015413316695915634098,
			0.0404015413316695915634098, 0.0323003586323289532815614, 0.0323003586323289532815614,
			0.0239155481017494803505333, 0.0239155481017494803505333, 0.0153217015129346761279458,
			0.0153217015129346761279458, 0.0066062278475873780586492, 0.0066062278475873780586492 } };
	roots[34] = { { -0.0455098219531025427490757, 0.0455098219531025427490757, -0.1361523572591829758944288,
			0.1361523572591829758944288, -0.2256666916164494838686412, 0.2256666916164494838686412,
			-0.3133110813394632474583168, 0.3133110813394632474583168, -0.3983592777586459406314948,
			0.3983592777586459406314948, -0.4801065451903270341941027, 0.4801065451903270341941027,
			-0.5578755006697466427364599, 0.5578755006697466427364599, -0.6310217270805285453177758,
			0.6310217270805285453177758, -0.6989391132162629079330001, 0.6989391132162629079330001,
			-0.7610648766298730141874090, 0.7610648766298730141874090, -0.8168842279009336645915789,
			0.8168842279009336645915789, -0.8659346383345644692635721, 0.8659346383345644692635721,
			-0.9078096777183244688008999, 0.9078096777183244688008999, -0.9421623974051070916316760,
			0.9421623974051070916316760, -0.9687082625333442817646466, 0.9687082625333442817646466,
			-0.9872278164063094850497504, 0.9872278164063094850497504, -0.9975717537908419192433724,
			0.9975717537908419192433724 } };
	weights[34] = { { 0.0909567403302598736153376, 0.0909567403302598736153376, 0.0902030443706407295739422,
			0.0902030443706407295739422, 0.0887018978356938692870765, 0.0887018978356938692870765,
			0.0864657397470357497842469, 0.0864657397470357497842469, 0.0835130996998456551870202,
			0.0835130996998456551870202, 0.0798684443397718447388188, 0.0798684443397718447388188,
			0.0755619746600319312708340, 0.0755619746600319312708340, 0.0706293758142557249990388,
			0.0706293758142557249990388, 0.0651115215540764113785444, 0.0651115215540764113785444,
			0.0590541358275244931939610, 0.0590541358275244931939610, 0.0525074145726781061682460,
			0.0525074145726781061682460, 0.0455256115233532724538226, 0.0455256115233532724538226,
			0.0381665937963875163217659, 0.0381665937963875163217659, 0.0304913806384461318094424,
			0.0304913806384461318094424, 0.0225637219854949700840941, 0.0225637219854949700840941,
			0.0144501627485950354152022, 0.0144501627485950354152022, 0.0062291405559086847186065,
			0.0062291405559086847186065 } };
	roots[35] = { { 0, -0.0883713432756592636009294, 0.0883713432756592636009294, -0.1760510611659895699743037,
			0.1760510611659895699743037, -0.2623529412092960579708952, 0.2623529412092960579708952,
			-0.3466015544308139458769798, 0.3466015544308139458769798, -0.4281375415178142541876206,
			0.4281375415178142541876206, -0.5063227732414886150242976, 0.5063227732414886150242976,
			-0.5805453447497645099345020, 0.5805453447497645099345020, -0.6502243646658903886757928,
			0.6502243646658903886757928, -0.7148145015566287832644086, 0.7148145015566287832644086,
			-0.7738102522869125552674230, 0.7738102522869125552674230, -0.8267498990922254068340506,
			0.8267498990922254068340506, -0.8732191250252223315232823, 0.8732191250252223315232823,
			-0.9128542613593176144649371, 0.9128542613593176144649371, -0.9453451482078273295387260,
			0.9453451482078273295387260, -0.9704376160392298332150705, 0.9704376160392298332150705,
			-0.9879357644438514980351171, 0.9879357644438514980351171, -0.9977065690996002972601631,
			0.9977065690996002972601631 } };
	weights[35] = { { 0.0884867949071042906382074, 0.0881405304302754629707388, 0.0881405304302754629707388,
			0.0871044469971835342433220, 0.0871044469971835342433220, 0.0853866533920991252259440,
			0.0853866533920991252259440, 0.0830005937288565883799265, 0.0830005937288565883799265,
			0.0799649422423242629326621, 0.0799649422423242629326621, 0.0763034571554420535386585,
			0.0763034571554420535386585, 0.0720447947725600646654619, 0.0720447947725600646654619,
			0.0672222852690869039643055, 0.0672222852690869039643055, 0.0618736719660801888870141,
			0.0618736719660801888870141, 0.0560408162123701285783277, 0.0560408162123701285783277,
			0.0497693704013535298051997, 0.0497693704013535298051997, 0.0431084223261702187823065,
			0.0431084223261702187823065, 0.0361101158634633805327170, 0.0361101158634633805327170,
			0.0288292601088942540487160, 0.0288292601088942540487160, 0.0213229799114835808834380,
			0.0213229799114835808834380, 0.0136508283483614922664040, 0.0136508283483614922664040,
			0.0058834334204430849757539, 0.0058834334204430849757539 } };
	roots[36] = { { -0.0430181984737086072269690, 0.0430181984737086072269690, -0.1287361038093847886519934,
			0.1287361038093847886519934, -0.2135008923168655789432262, 0.2135008923168655789432262,
			-0.2966849953440282705032390, 0.2966849953440282705032390, -0.3776725471196892163227364,
			0.3776725471196892163227364, -0.4558639444334202672072177, 0.4558639444334202672072177,
			-0.5306802859262451616407091, 0.5306802859262451616407091, -0.6015676581359805350799450,
			0.6015676581359805350799450, -0.6680012365855210620971913, 0.6680012365855210620971913,
			-0.7294891715935565820902605, 0.7294891715935565820902605, -0.7855762301322065128277690,
			0.7855762301322065128277690, -0.8358471669924753064188209, 0.8358471669924753064188209,
			-0.8799298008903971319824273, 0.8799298008903971319824273, -0.9174977745156590660758672,
			0.9174977745156590660758672, -0.9482729843995075452024741, 0.9482729843995075452024741,
			-0.9720276910496979493356050, 0.9720276910496979493356050, -0.9885864789022122380733951,
			0.9885864789022122380733951, -0.9978304624840858361988283, 0.9978304624840858361988283 } };
	weights[36] = { { 0.0859832756703947474900852, 0.0859832756703947474900852, 0.0853466857393386274918505,
			0.0853466857393386274918505, 0.0840782189796619349334576, 0.0840782189796619349334576,
			0.0821872667043397095172235, 0.0821872667043397095172235, 0.0796878289120716019087247,
			0.0796878289120716019087247, 0.0765984106458706745287577, 0.0765984106458706745287577,
			0.0729418850056530613538734, 0.0729418850056530613538734, 0.0687453238357364426136896,
			0.0687453238357364426136896, 0.0640397973550154895563848, 0.0640397973550154895563848,
			0.0588601442453248173096754, 0.0588601442453248173096754, 0.0532447139777599190920256,
			0.0532447139777599190920256, 0.0472350834902659784166168, 0.0472350834902659784166168,
			0.0408757509236448954741145, 0.0408757509236448954741145, 0.0342138107703072299212451,
			0.0342138107703072299212451, 0.0272986214985687790944172, 0.0272986214985687790944172,
			0.0201815152977354715320989, 0.0201815152977354715320989, 0.0129159472840655744045034,
			0.0129159472840655744045034, 0.0055657196642450453612560, 0.0055657196642450453612560 } };
	roots[37] = { { 0, -0.0836704089547699019430483, 0.0836704089547699019430483, -0.1667539302398519769686717,
			0.1667539302398519769686717, -0.2486677927913657588055678, 0.2486677927913657588055678,
			-0.3288374298837069994984718, 0.3288374298837069994984718, -0.4067005093183261101009316,
			0.4067005093183261101009316, -0.4817108778032055541471929, 0.4817108778032055541471929,
			-0.5533423918615817812350984, 0.5533423918615817812350984, -0.6210926084089244831481526,
			0.6210926084089244831481526, -0.6844863091309593574455232, 0.6844863091309593574455232,
			-0.7430788339819652625470474, 0.7430788339819652625470474, -0.7964592005099022933930463,
			0.7964592005099022933930463, -0.8442529873405559679874563, 0.8442529873405559679874563,
			-0.8861249621554860789461495, 0.8861249621554860789461495, -0.9217814374124637426681437,
			0.9217814374124637426681437, -0.9509723432620948213285761, 0.9509723432620948213285761,
			-0.9734930300564857443288905, 0.9734930300564857443288905, -0.9891859632143191866840991,
			0.9891859632143191866840991, -0.9979445824779136489408031, 0.9979445824779136489408031 } };
	weights[37] = { { 0.0837683609931389047970174, 0.0834745736258627872522530, 0.0834745736258627872522530,
			0.0825952722364372508912303, 0.0825952722364372508912303, 0.0811366245084650305098776,
			0.0811366245084650305098776, 0.0791088618375293807672122, 0.0791088618375293807672122,
			0.0765262075705292378858880, 0.0765262075705292378858880, 0.0734067772484881727246266,
			0.0734067772484881727246266, 0.0697724515557003448850814, 0.0697724515557003448850814,
			0.0656487228727512494840238, 0.0656487228727512494840238, 0.0610645165232259861309881,
			0.0610645165232259861309881, 0.0560519879982749178085392, 0.0560519879982749178085392,
			0.0506462976548246016038759, 0.0506462976548246016038759, 0.0448853646624371666574103,
			0.0448853646624371666574103, 0.0388096025019345444889624, 0.0388096025019345444889624,
			0.0324616398475214810672343, 0.0324616398475214810672343, 0.0258860369905589335227595,
			0.0258860369905589335227595, 0.0191290444890839660435019, 0.0191290444890839660435019,
			0.0122387801003075565263049, 0.0122387801003075565263049, 0.0052730572794979393517221,
			0.0052730572794979393517221 } };
	roots[38] = { { -0.0407851479045782399133164, 0.0407851479045782399133164, -0.1220840253378674198696124,
			0.1220840253378674198696124, -0.2025704538921167032039778, 0.2025704538921167032039778,
			-0.2817088097901652613601141, 0.2817088097901652613601141, -0.3589724404794350132567176,
			0.3589724404794350132567176, -0.4338471694323764843732562, 0.4338471694323764843732562,
			-0.5058347179279311032405337, 0.5058347179279311032405337, -0.5744560210478070811329275,
			0.5744560210478070811329275, -0.6392544158296817071803449, 0.6392544158296817071803449,
			-0.6997986803791843559128258, 0.6997986803791843559128258, -0.7556859037539706807377381,
			0.7556859037539706807377381, -0.8065441676053168155515654, 0.8065441676053168155515654,
			-0.8520350219323621888596497, 0.8520350219323621888596497, -0.8918557390046322167949370,
			0.8918557390046322167949370, -0.9257413320485843968251096, 0.9257413320485843968251096,
			-0.9534663309335295956705422, 0.9534663309335295956705422, -0.9748463285901535076408855,
			0.9748463285901535076408855, -0.9897394542663855719444259, 0.9897394542663855719444259,
			-0.9980499305356876198128471, 0.9980499305356876198128471 } };
	weights[38] = { { 0.0815250292803857866992188, 0.0815250292803857866992188, 0.0809824937705971006232695,
			0.0809824937705971006232695, 0.0799010332435278215860277, 0.0799010332435278215860277,
			0.0782878446582109480753754, 0.0782878446582109480753754, 0.0761536635484463960659935,
			0.0761536635484463960659935, 0.0735126925847434571452064, 0.0735126925847434571452064,
			0.0703825070668989547392830, 0.0703825070668989547392830, 0.0667839379791404119350462,
			0.0667839379791404119350462, 0.0627409333921330540529697, 0.0627409333921330540529697,
			0.0582803991469972060223059, 0.0582803991469972060223059, 0.0534320199103323199737570,
			0.0534320199103323199737570, 0.0482280618607586833743522, 0.0482280618607586833743522,
			0.0427031585046744342358784, 0.0427031585046744342358784, 0.0368940815940247381649402,
			0.0368940815940247381649402, 0.0308395005451750546587311, 0.0308395005451750546587311,
			0.0245797397382323758952012, 0.0245797397382323758952012, 0.0181565777096132368988761,
			0.0181565777096132368988761, 0.0116134447164686741776683, 0.0116134447164686741776683,
			0.0050028807496393456758995, 0.0050028807496393456758995 } };
	roots[39] = { { 0, -0.0794438046087554775819171, 0.0794438046087554775819171, -0.1583853399978377999227011,
			0.1583853399978377999227011, -0.2363255124618357673360063, 0.2363255124618357673360063,
			-0.3127715592481859225359969, 0.3127715592481859225359969, -0.3872401639715614558538820,
			0.3872401639715614558538820, -0.4592605123091360486632466, 0.4592605123091360486632466,
			-0.5283772686604374738963436, 0.5283772686604374738963436, -0.5941534549572779886928901,
			0.5941534549572779886928901, -0.6561732134320109107344259, 0.6561732134320109107344259,
			-0.7140444358945346791338670, 0.7140444358945346791338670, -0.7674012429310634998322724,
			0.7674012429310634998322724, -0.8159062974301431043532327, 0.8159062974301431043532327,
			-0.8592529379999061539137974, 0.8592529379999061539137974, -0.8971671192929928878482911,
			0.8971671192929928878482911, -0.9294091484867382296978170, 0.9294091484867382296978170,
			-0.9557752123246522771108919, 0.9557752123246522771108919, -0.9760987093334710538448503,
			0.9760987093334710538448503, -0.9902515368546859836397751, 0.9902515368546859836397751,
			-0.9981473830664329060054723, 0.9981473830664329060054723 } };
	weights[39] = { { 0.0795276221394428524174182, 0.0792762225683684710101558, 0.0792762225683684710101558,
			0.0785236132873711767250633, 0.0785236132873711767250633, 0.0772745525446820167285116,
			0.0772745525446820167285116, 0.0755369373228360577047844, 0.0755369373228360577047844,
			0.0733217534142686173811539, 0.0733217534142686173811539, 0.0706430059706087607701149,
			0.0706430059706087607701149, 0.0675176309662312653630213, 0.0675176309662312653630213,
			0.0639653881386823889867064, 0.0639653881386823889867064, 0.0600087360885961495749418,
			0.0600087360885961495749418, 0.0556726903409162999073911, 0.0556726903409162999073911,
			0.0509846652921294052140210, 0.0509846652921294052140210, 0.0459743011089166318841766,
			0.0459743011089166318841766, 0.0406732768479338439390566, 0.0406732768479338439390566,
			0.0351151114981313307610652, 0.0351151114981313307610652, 0.0293349559839033785921560,
			0.0293349559839033785921560, 0.0233693848321781645947123, 0.0233693848321781645947123,
			0.0172562290937249190408055, 0.0172562290937249190408055, 0.0110347889391645942426768,
			0.0110347889391645942426768, 0.0047529446916351013707762, 0.0047529446916351013707762 } };
	roots[40] = { { -0.0387724175060508219331934, 0.0387724175060508219331934, -0.1160840706752552084834513,
			0.1160840706752552084834513, -0.1926975807013710997155169, 0.1926975807013710997155169,
			-0.2681521850072536811411843, 0.2681521850072536811411843, -0.3419940908257584730074925,
			0.3419940908257584730074925, -0.4137792043716050015248797, 0.4137792043716050015248797,
			-0.4830758016861787129085666, 0.4830758016861787129085666, -0.5494671250951282020759313,
			0.5494671250951282020759313, -0.6125538896679802379526125, 0.6125538896679802379526125,
			-0.6719566846141795483793545, 0.6719566846141795483793545, -0.7273182551899271032809965,
			0.7273182551899271032809965, -0.7783056514265193876949715, 0.7783056514265193876949715,
			-0.8246122308333116631963202, 0.8246122308333116631963202, -0.8659595032122595038207818,
			0.8659595032122595038207818, -0.9020988069688742967282533, 0.9020988069688742967282533,
			-0.9328128082786765333608522, 0.9328128082786765333608522, -0.9579168192137916558045410,
			0.9579168192137916558045410, -0.9772599499837742626633703, 0.9772599499837742626633703,
			-0.9907262386994570064530544, 0.9907262386994570064530544, -0.9982377097105592003496227,
			0.9982377097105592003496227 } };
	weights[40] = { { 0.0775059479784248112637240, 0.0775059479784248112637240, 0.0770398181642479655883075,
			0.0770398181642479655883075, 0.0761103619006262423715581, 0.0761103619006262423715581,
			0.0747231690579682642001893, 0.0747231690579682642001893, 0.0728865823958040590605107,
			0.0728865823958040590605107, 0.0706116473912867796954836, 0.0706116473912867796954836,
			0.0679120458152339038256901, 0.0679120458152339038256901, 0.0648040134566010380745545,
			0.0648040134566010380745545, 0.0613062424929289391665380, 0.0613062424929289391665380,
			0.0574397690993915513666177, 0.0574397690993915513666177, 0.0532278469839368243549965,
			0.0532278469839368243549965, 0.0486958076350722320614342, 0.0486958076350722320614342,
			0.0438709081856732719916747, 0.0438709081856732719916747, 0.0387821679744720176399720,
			0.0387821679744720176399720, 0.0334601952825478473926782, 0.0334601952825478473926782,
			0.0279370069800234010984892, 0.0279370069800234010984892, 0.0222458491941669572615043,
			0.0222458491941669572615043, 0.0164210583819078887128635, 0.0164210583819078887128635,
			0.0104982845311528136147422, 0.0104982845311528136147422, 0.0045212770985331912584717,
			0.0045212770985331912584717 } };


	for (auto &&config : configurations) {
		std::vector<double> one_config_eval_points;
		for (size_t k = 0; k < config.n; k++) {
			one_config_eval_points.push_back(
					(config.start + config.end) / 2 + (config.end - config.start) * roots[config.n][k] / 2);
		}
		evaluation_points.push_back(one_config_eval_points);
	}
}

double GaussQuadrature::partial_integrate(std::function<double(double)> f, size_t configuration_index) const {
	IntegralConfiguration conf = configurations[configuration_index];
	double b = conf.end, a = conf.start;
	size_t n = conf.n;
	if (n == 0) {
		throw(std::invalid_argument("Number of integration points must be positive"));
	}
	if (n > 40) {
		throw(std::invalid_argument("Number of integration points larger than 40 not implemented"));
	}

	double sum=0;
	for (size_t k = 0; k < n; k++) {
		sum += weights[n][k] * f(evaluation_points[configuration_index][k]);
	}

	return sum*(b-a)/2;
}

double GaussQuadrature::integrate(std::function<double(double)> f) const {
	double integral = 0;

	for (size_t k = 0; k < configurations.size(); k++) {
		integral += partial_integrate(f, k);
	}

	return integral;
}


